/* Generated by Edge Impulse
 *
 * Permission is hereby granted, free of charge, to any person obtaining a copy
 * of this software and associated documentation files (the "Software"), to deal
 * in the Software without restriction, including without limitation the rights
 * to use, copy, modify, merge, publish, distribute, sublicense, and/or sell
 * copies of the Software, and to permit persons to whom the Software is
 * furnished to do so, subject to the following conditions:
 *
 * The above copyright notice and this permission notice shall be included in
 * all copies or substantial portions of the Software.
 *
 * THE SOFTWARE IS PROVIDED "AS IS", WITHOUT WARRANTY OF ANY KIND, EXPRESS OR
 * IMPLIED, INCLUDING BUT NOT LIMITED TO THE WARRANTIES OF MERCHANTABILITY,
 * FITNESS FOR A PARTICULAR PURPOSE AND NONINFRINGEMENT. IN NO EVENT SHALL THE
 * AUTHORS OR COPYRIGHT HOLDERS BE LIABLE FOR ANY CLAIM, DAMAGES OR OTHER
 * LIABILITY, WHETHER IN AN ACTION OF CONTRACT, TORT OR OTHERWISE, ARISING FROM,
 * OUT OF OR IN CONNECTION WITH THE SOFTWARE OR THE USE OR OTHER DEALINGS IN THE
 * SOFTWARE.
 */
// Generated on: 15.02.2023 02:37:33

#include <stdio.h>
#include <stdlib.h>
#include "edge-impulse-sdk/tensorflow/lite/c/builtin_op_data.h"
#include "edge-impulse-sdk/tensorflow/lite/c/common.h"
#include "edge-impulse-sdk/tensorflow/lite/micro/micro_mutable_op_resolver.h"
#include "edge-impulse-sdk/porting/ei_classifier_porting.h"

#if EI_CLASSIFIER_PRINT_STATE
#if defined(__cplusplus) && EI_C_LINKAGE == 1
extern "C" {
    extern void ei_printf(const char *format, ...);
}
#else
extern void ei_printf(const char *format, ...);
#endif
#endif

#if defined __GNUC__
#define ALIGN(X) __attribute__((aligned(X)))
#elif defined _MSC_VER
#define ALIGN(X) __declspec(align(X))
#elif defined __TASKING__
#define ALIGN(X) __align(X)
#endif

#ifndef EI_MAX_SCRATCH_BUFFER_COUNT
#define EI_MAX_SCRATCH_BUFFER_COUNT 4
#endif // EI_MAX_SCRATCH_BUFFER_COUNT

#ifndef EI_MAX_OVERFLOW_BUFFER_COUNT
#define EI_MAX_OVERFLOW_BUFFER_COUNT 10
#endif // EI_MAX_OVERFLOW_BUFFER_COUNT

using namespace tflite;
using namespace tflite::ops;
using namespace tflite::ops::micro;

namespace {

constexpr int kTensorArenaSize = 720;

#if defined(EI_CLASSIFIER_ALLOCATION_STATIC)
uint8_t tensor_arena[kTensorArenaSize] ALIGN(16);
#elif defined(EI_CLASSIFIER_ALLOCATION_STATIC_HIMAX)
#pragma Bss(".tensor_arena")
uint8_t tensor_arena[kTensorArenaSize] ALIGN(16);
#pragma Bss()
#elif defined(EI_CLASSIFIER_ALLOCATION_STATIC_HIMAX_GNU)
uint8_t tensor_arena[kTensorArenaSize] ALIGN(16) __attribute__((section(".tensor_arena")));
#else
#define EI_CLASSIFIER_ALLOCATION_HEAP 1
uint8_t* tensor_arena = NULL;
#endif

static uint8_t* tensor_boundary;
static uint8_t* current_location;

template <int SZ, class T> struct TfArray {
  int sz; T elem[SZ];
};
enum used_operators_e {
  OP_FULLY_CONNECTED, OP_SOFTMAX,  OP_LAST
};
struct TensorInfo_t { // subset of TfLiteTensor used for initialization from constant memory
  TfLiteAllocationType allocation_type;
  void* data;
  TfLiteIntArray* dims;
  size_t bytes;
};
struct NodeInfo_t { // subset of TfLiteNode used for initialization from constant memory
  struct TfLiteIntArray* inputs;
  struct TfLiteIntArray* outputs;
  void* builtin_data;
  used_operators_e used_op_index;
};

TfLiteContext ctx{};
TfLiteTensor tflTensors[11];
TfLiteEvalTensor tflEvalTensors[11];
TfLiteRegistration registrations[OP_LAST];
TfLiteNode tflNodes[4];

const TfArray<2, int> tensor_dimension0 = { 2, { 1,110 } };
const ALIGN(16) float tensor_data1[4] = { 0.075935810804367065, -0.13221661746501923, 0.0058145970106124878, 0.15914951264858246, };
const TfArray<1, int> tensor_dimension1 = { 1, { 4 } };
const ALIGN(16) float tensor_data2[10] = { 0.014277498237788677, 0.19583605229854584, -0.0040037920698523521, -0.032602570950984955, 0.045070197433233261, 0.10804887115955353, -0.050084024667739868, 0.045757677406072617, -0.077404335141181946, -0.039606489241123199, };
const TfArray<1, int> tensor_dimension2 = { 1, { 10 } };
const ALIGN(16) float tensor_data3[20] = { 0.0073722968809306622, 0.034302268177270889, 0, 0.00067219929769635201, 0.00097222760086879134, 0.072497241199016571, 0.010711884126067162, 0.0061324136331677437, -0.02064845897257328, -0.013933537527918816, 0.045830972492694855, -0.011644008569419384, -0.010590674355626106, -0.029663771390914917, -0.018550526350736618, -0.01915389858186245, -0.016167961061000824, -0.01956481859087944, 0.0041020996868610382, -0.0099144550040364265, };
const TfArray<1, int> tensor_dimension3 = { 1, { 20 } };
const ALIGN(16) float tensor_data4[20*110] = { 
  -0.12009453773498535, -0.061128679662942886, -0.17475511133670807, 0.072573326528072357, 0.030431285500526428, 0.058382473886013031, -0.14310969412326813, -0.15241515636444092, -0.16705983877182007, 0.037918440997600555, 0.23823495209217072, -0.075164340436458588, -0.063041999936103821, 0.093672610819339752, 0.15426568686962128, 0.25788062810897827, 0.25206670165061951, 0.011268793605268002, 0.20962752401828766, -0.12042012065649033, 0.21088650822639465, -0.14052245020866394, 0.19978442788124084, -0.25731438398361206, -0.11957097053527832, -0.1006983295083046, -0.16965630650520325, 0.11091116815805435, -0.053402982652187347, -0.067580536007881165, -0.14197142422199249, -0.20258821547031403, 0.021576236933469772, 0.19872362911701202, 0.083773642778396606, -0.045133143663406372, -0.068506337702274323, 0.18524497747421265, 0.10835065692663193, 0.019863482564687729, 0.16761437058448792, 0.21416673064231873, 0.12985523045063019, 0.11336150765419006, -0.15208700299263, 0.01872934028506279, 0.028204403817653656, 0.14008647203445435, -0.070008747279644012, 0.082466155290603638, 0.16618691384792328, 0.21077136695384979, -0.16801822185516357, 0.17487740516662598, 0.036178398877382278, 0.09410712867975235, 0.24159078299999237, -0.067564055323600769, 0.027484331279993057, 0.083706974983215332, 0.099074177443981171, -0.017926739528775215, -0.066733263432979584, -0.037421904504299164, -0.069418191909790039, -0.0035690977238118649, 0.1058705598115921, 0.073060758411884308, 0.0045973863452672958, -0.17750704288482666, 0.16265077888965607, -0.14235006272792816, -0.036110542714595795, 0.00093377794837579131, -0.054613977670669556, 0.18061870336532593, 0.10979395359754562, 0.15334904193878174, -0.039191648364067078, 0.1294044554233551, 0.11053992807865143, 0.064140655100345612, -0.00087677460396662354, 0.10948556661605835, -0.044701185077428818, 0.028880603611469269, -0.10885931551456451, 0.039473716169595718, -0.031543653458356857, 0.13086055219173431, 0.17593774199485779, -0.19383363425731659, -0.0010711391223594546, 0.079633861780166626, -0.024525269865989685, -0.096526309847831726, 0.015804953873157501, 0.053468633443117142, -0.020123515278100967, 0.20353762805461884, -0.20520767569541931, -0.11677917093038559, 0.13228045403957367, -0.10999553650617599, -0.042866852134466171, -0.17796468734741211, 0.067769430577754974, -0.17205935716629028, 0.023961564525961876, 0.054869610816240311, 
  0.0033728533890098333, 0.15817540884017944, -0.017140461131930351, -0.15587666630744934, -0.035377137362957001, 0.14210915565490723, 0.074800409376621246, 0.15962234139442444, -0.18535475432872772, 0.073393203318119049, 0.0085668759420514107, -0.11711639910936356, -0.126813143491745, -0.18380691111087799, -0.19181971251964569, -0.13271543383598328, -0.1449054479598999, -0.24268819391727448, 0.12139888852834702, 0.044085688889026642, -0.072913944721221924, -0.21214191615581512, -0.19668950140476227, -0.29025280475616455, 0.092431299388408661, -0.1433749794960022, 0.050415381789207458, 0.075084254145622253, -0.15488767623901367, -0.0067797754891216755, 0.14521455764770508, 0.17770010232925415, -0.19849902391433716, -0.061540424823760986, -0.33310970664024353, 0.21605919301509857, -0.066890902817249298, 0.13291074335575104, 0.1642003208398819, -0.082367703318595886, -0.071853853762149811, 0.05535290390253067, 0.043393176048994064, 0.012002088129520416, -0.2063620388507843, -0.19146023690700531, 0.075511500239372253, -0.012300022877752781, -0.052206721156835556, -0.12900671362876892, 0.1021784245967865, 0.21553362905979156, -0.18404862284660339, -0.13458050787448883, 0.16734969615936279, -0.054260250180959702, -0.060311466455459595, 0.26454818248748779, -0.044066160917282104, -0.1618780642747879, 0.14048676192760468, 0.0075613302178680897, -0.15673933923244476, 0.098391719162464142, -0.091758623719215393, -0.17662440240383148, -0.031431782990694046, 0.018829338252544403, 0.15521712601184845, -0.067378886044025421, -0.2306588739156723, 0.094517260789871216, -0.070016652345657349, -0.1322527676820755, 0.095980420708656311, 0.0074348752386868, -0.17930892109870911, 0.32842397689819336, 0.28414058685302734, -0.1636972576379776, 0.18199490010738373, -0.10175773501396179, -0.15669995546340942, -0.18586820363998413, -0.071815796196460724, -0.0060987155884504318, -0.14865951240062714, 0.18843553960323334, -0.10197184234857559, -0.028189178556203842, 0.20674318075180054, -0.022836538031697273, -0.19273072481155396, -0.15726001560688019, -0.22400158643722534, 0.16814468801021576, -0.0022225480061024427, 0.16791294515132904, -0.22270771861076355, -0.20323890447616577, -0.025582253932952881, 0.13559894263744354, -0.15862955152988434, 0.1133645698428154, -0.15643398463726044, 0.14602296054363251, -0.194959357380867, 0.0056802206672728062, -0.10191021859645844, -0.12954851984977722, 
  -0.001576155424118042, -0.20890025794506073, -0.16729705035686493, 0.089264467358589172, -0.00030998885631561279, 0.047772064805030823, -0.20267778635025024, -0.050380557775497437, -0.13301956653594971, 0.021253600716590881, -0.071278586983680725, -0.051822319626808167, -0.15652963519096375, -0.046406924724578857, 0.11243270337581635, -0.1778312623500824, -0.1453387588262558, -0.050038814544677734, 0.17637841403484344, -0.20405080914497375, 0.14305536448955536, -0.029781818389892578, -0.10651129484176636, 0.041873946785926819, -0.094893559813499451, 0.17754857242107391, 0.021992146968841553, -0.10921487212181091, -0.034078553318977356, -0.12755945324897766, -0.13879579305648804, 0.15868078172206879, -0.18532124161720276, 0.083790317177772522, -0.14284580945968628, 0.068654164671897888, 0.049606367945671082, -0.029962271451950073, -0.10390683263540268, -0.13378331065177917, 0.17286927998065948, -0.038912028074264526, -0.0079458355903625488, -0.017759338021278381, -0.050755396485328674, 0.022910371422767639, 0.14815603196620941, -0.054237723350524902, 0.21296118199825287, -0.16661572456359863, 0.19591335952281952, -0.0056107938289642334, 0.038461044430732727, -0.14708282053470612, 0.1342938095331192, 0.10921020805835724, 0.12967516481876373, 0.055806443095207214, 0.064596250653266907, 0.1574857085943222, 0.074714705348014832, -0.20375315845012665, -0.18657916784286499, 0.073230817914009094, 0.09725324809551239, -0.15723533928394318, -0.10094587504863739, 0.017305269837379456, 0.11105747520923615, 0.19137300550937653, 0.15373678505420685, 0.092034056782722473, -0.078796684741973877, 0.20367412269115448, -0.072362214326858521, 0.12337355315685272, -0.14729145169258118, -0.053248509764671326, -0.15739284455776215, -0.051107272505760193, 0.049918100237846375, -0.099216930568218231, -0.15323461592197418, 0.067572936415672302, 0.17294923961162567, 0.20764283835887909, -0.019076928496360779, 0.11163990199565887, -0.14954838156700134, 0.093292608857154846, -0.067145764827728271, 0.053739920258522034, -0.20304924249649048, -0.066953837871551514, 0.20847178995609283, 0.072165116667747498, 0.14201505482196808, -0.022951200604438782, 0.10073588788509369, -0.037088528275489807, -0.15488621592521667, 0.047441437840461731, 0.13242451846599579, -0.044975101947784424, 0.1198686808347702, 0.1680481880903244, -0.133753702044487, 0.18250377476215363, -0.030031055212020874, -0.14655479788780212, 
  -0.21169081330299377, -0.12070019543170929, -0.11613106727600098, 0.1166822761297226, 0.094311952590942383, 0.11588030308485031, -0.08709397166967392, 0.15834452211856842, 0.13299223780632019, 0.25527259707450867, 0.008696957491338253, -0.11143132299184799, -0.39290347695350647, 0.17635560035705566, 0.028085889294743538, -0.053413171321153641, -0.033157754689455032, -0.010076923295855522, 0.26917889714241028, 0.25297001004219055, -0.13219091296195984, -0.11835239827632904, 0.23266978561878204, -0.24710501730442047, -0.18398845195770264, 0.23877629637718201, 0.072032228112220764, -0.015514615923166275, 0.20551121234893799, 0.11518847942352295, 0.1120760515332222, 0.24635699391365051, 0.080324925482273102, -0.13046316802501678, -0.042395826429128647, 0.09672924131155014, 0.081192858517169952, 0.0023675230331718922, -0.13261112570762634, 0.036162909120321274, 0.074204258620738983, 0.046554941684007645, 0.01944052055478096, 0.16228395700454712, -0.15950095653533936, 0.041008312255144119, 0.015856418758630753, -0.12440066784620285, 0.15517538785934448, 0.14304831624031067, 0.18856999278068542, -0.085037849843502045, -0.030335873365402222, 0.25188460946083069, -0.1510513573884964, -0.096096798777580261, 0.080914802849292755, -0.15515333414077759, 0.18452918529510498, -0.11069569736719131, -0.15889038145542145, -0.040267195552587509, 0.023902894929051399, 0.19099020957946777, -0.077631592750549316, 0.077190414071083069, -0.088625684380531311, -0.21293953061103821, -0.19194555282592773, 0.099797368049621582, 0.12154904752969742, -0.054869528859853745, 0.018638540059328079, -0.10831364244222641, 0.045509006828069687, -0.13316556811332703, -0.16094827651977539, 0.038555614650249481, -0.1047770082950592, 0.13174036145210266, 0.15460176765918732, -0.0823245570063591, -0.08332456648349762, 0.060811791568994522, 0.14618629217147827, 0.15044152736663818, 0.1978243887424469, -0.074688047170639038, 0.12648485600948334, -0.07092004269361496, -0.045716594904661179, -0.19381517171859741, -0.13547983765602112, 0.082174487411975861, 0.073894724249839783, -0.22513926029205322, -0.2104412317276001, -0.13855867087841034, 0.068342976272106171, -0.01771293580532074, -0.043036147952079773, -0.12979438900947571, -0.16374240815639496, 0.088285960257053375, 0.03676750510931015, 0.056633267551660538, -0.014514612965285778, -0.14107722043991089, 0.083194740116596222, -0.17072582244873047, 
  0.056990314275026321, 0.11113982647657394, -0.2738080620765686, 0.10909133404493332, 0.056263592094182968, 0.19603197276592255, -0.19438603520393372, -0.12833940982818604, -0.020333493128418922, 0.059985313564538956, 0.085563033819198608, 0.0014604681637138128, 0.38315281271934509, 0.14803357422351837, -0.17931833863258362, 0.0035122230183333158, -0.13857315480709076, -0.12032978981733322, -0.014569589868187904, -0.020570948719978333, -0.023310454562306404, -0.087412051856517792, -0.061947900801897049, 0.33121109008789062, -0.089514203369617462, -0.14679740369319916, 0.088484562933444977, -0.010432853363454342, 0.14855986833572388, -0.04410519078373909, -0.065155550837516785, -0.19039277732372284, -0.19623549282550812, 0.10817626118659973, -0.054851315915584564, -0.022052854299545288, 0.052310936152935028, 0.030032820999622345, -0.21164067089557648, -0.17151065170764923, 0.040909137576818466, -0.22286707162857056, -0.15060845017433167, -0.058076351881027222, -0.19992309808731079, 0.12133805453777313, -0.067802421748638153, 0.10046187043190002, 0.089699737727642059, 0.072986625134944916, 0.072538122534751892, -0.23504368960857391, -0.0015069773653522134, -0.070655584335327148, 0.14404201507568359, -0.05443437397480011, 0.30707806348800659, -0.31812688708305359, 0.0071562961675226688, -0.045567121356725693, -0.21137847006320953, 0.015417878516018391, -0.12366698682308197, -0.15165312588214874, 0.17632226645946503, -0.056460831314325333, 0.16834333539009094, -0.35384359955787659, -0.13451153039932251, -0.16808634996414185, -0.047336939722299576, 0.011619899421930313, -0.0015683104284107685, 0.072438307106494904, 0.072545707225799561, 0.10442821681499481, 0.091301098465919495, -0.20696942508220673, -0.23558187484741211, 0.10433071106672287, -0.084189191460609436, 0.074781283736228943, 0.081176519393920898, -0.16837593913078308, 0.094641886651515961, -0.04453914612531662, -0.07272685319185257, -0.13714082539081573, -0.27883985638618469, -0.039428882300853729, -0.23767141997814178, 0.1189115047454834, 0.1092267706990242, -0.063357166945934296, 0.21386344730854034, 0.024419708177447319, -0.10773392021656036, 0.10451334714889526, 0.22565945982933044, 0.023120224475860596, -0.11439433693885803, -0.03591616079211235, -0.12867657840251923, 0.20496729016304016, -0.07496662437915802, 0.042335864156484604, -0.16343477368354797, -0.068834304809570312, -0.057489875704050064, 0.11731548607349396, 
  0.18187461793422699, 0.0091081010177731514, -0.15850274264812469, -0.053465288132429123, -0.0069523686543107033, 0.12453767657279968, 0.089152656495571136, 0.15606337785720825, 0.083841763436794281, -0.12671710550785065, -0.038466829806566238, -0.076111346483230591, -0.05155351385474205, -0.031058518216013908, 0.16742902994155884, 0.050754562020301819, -0.10645849257707596, 0.086062215268611908, 0.20930087566375732, 0.281584233045578, -0.04411204531788826, -0.19593590497970581, 0.026601064950227737, -0.39811944961547852, -0.20579998195171356, 0.20110532641410828, 0.14291800558567047, 0.01150195300579071, 0.206086665391922, 0.18243697285652161, 0.22739630937576294, 0.31682741641998291, 0.14306168258190155, 0.24344335496425629, -0.25339281558990479, 0.15352863073348999, 0.023528257384896278, 0.099494151771068573, 0.25781935453414917, -0.069819137454032898, 0.063927300274372101, 0.10243307054042816, 0.19328767061233521, 0.12941665947437286, -0.0082292677834630013, 0.14801603555679321, -0.13767121732234955, 0.17089252173900604, -0.0079035190865397453, 0.02562752366065979, -0.0047919019125401974, 0.062266755849123001, -0.0094982199370861053, -0.11611942201852798, -0.066074177622795105, 0.17591723799705505, -0.052464298903942108, -0.33098897337913513, 0.19847355782985687, 0.099178902804851532, -0.0026383332442492247, 0.032371692359447479, 0.22284355759620667, 0.071070030331611633, 0.079992808401584625, -0.0052248477004468441, 0.30815613269805908, 0.097156964242458344, 0.031898748129606247, -0.14892874658107758, -0.20076186954975128, -0.087430238723754883, -0.10545309633016586, -0.19607166945934296, -0.10632028430700302, -0.1955706775188446, 0.049667265266180038, 0.21530351042747498, 0.086586378514766693, 0.082199521362781525, -0.22471456229686737, 0.0085161346942186356, 0.015719382092356682, -0.038732260465621948, 0.16402976214885712, 0.15310673415660858, -0.11348734050989151, 0.011491447687149048, -0.025044633075594902, -0.036401480436325073, 0.059839405119419098, 0.07390768826007843, -0.1732383519411087, 0.055876951664686203, -0.14223065972328186, 0.019074279814958572, 0.10130831599235535, 0.20467671751976013, -0.14211650192737579, 0.085623219609260559, -0.0028040707111358643, -0.088703319430351257, -0.03742675855755806, 0.052088577300310135, 0.07329944521188736, -0.19173717498779297, -0.082715839147567749, -0.22305291891098022, -0.14976328611373901, -0.061788823455572128, 
  -0.16440537571907043, 0.17760680615901947, -0.059042561799287796, -0.027094138786196709, -0.05182792991399765, 0.12783825397491455, 0.092340834438800812, 0.031390223652124405, -0.075879871845245361, 0.15940093994140625, -0.15444180369377136, -0.15622107684612274, -0.49950939416885376, -0.048944741487503052, 0.1789785623550415, 0.087866507470607758, -0.049202222377061844, 0.096593223512172699, 0.054396674036979675, 0.0019641602411866188, 0.095390155911445618, -0.062118284404277802, 0.19796794652938843, -0.076130136847496033, 0.035570219159126282, 0.041397746652364731, -0.058103855699300766, 0.064595036208629608, 0.075430713593959808, -0.029892509803175926, 0.11693341284990311, -0.022278901189565659, -0.086256638169288635, -0.022244218736886978, 0.055789317935705185, -0.13823658227920532, 0.027112569659948349, 0.14358581602573395, -0.019986262544989586, -0.10720125585794449, 0.16416142880916595, 0.011579951271414757, -0.17962789535522461, -0.11726757138967514, -0.03334750235080719, 0.070214495062828064, -0.073696218430995941, 0.19350472092628479, 0.12024252861738205, 0.068743102252483368, 0.073499418795108795, 0.024406313896179199, 0.1456226259469986, -0.066270612180233002, -0.20975631475448608, 0.11204864084720612, -0.15510334074497223, 0.1360631138086319, 0.032174423336982727, 0.058331191539764404, 0.12070857733488083, -0.016885994002223015, 0.069216303527355194, -0.050445109605789185, -0.10457295924425125, -0.1918463408946991, 0.14319480955600739, -0.062469325959682465, -0.11218462884426117, 0.010869585908949375, -0.15287335216999054, 0.14365829527378082, -0.0063967062160372734, 0.12479986250400543, -0.050691209733486176, -0.085533559322357178, 0.082251757383346558, -0.0016152651514858007, 0.16400498151779175, 0.030059803277254105, 0.11671588569879532, 0.04713820293545723, -0.06068333238363266, 0.016240596771240234, 0.1173258051276207, -0.099804043769836426, -0.077125057578086853, 0.17570766806602478, 0.15878003835678101, 0.014033942483365536, -0.11469481885433197, -0.0083651496097445488, 0.027130300179123878, 0.18020178377628326, -0.17560680210590363, 0.052617583423852921, 0.15100078284740448, -0.13256321847438812, 0.21330440044403076, 0.17748640477657318, 0.069599077105522156, -0.033207640051841736, 0.11573594063520432, 0.048168700188398361, -0.033752355724573135, -0.17409652471542358, 0.08544168621301651, -0.20141702890396118, -0.17303881049156189, -0.047287851572036743, 
  -0.030576921999454498, 0.18758323788642883, -0.10107237100601196, -0.009219735860824585, -0.10800272971391678, 0.22223398089408875, 0.077804937958717346, -0.22270743548870087, 0.16177293658256531, -0.13071508705615997, 0.18997710943222046, -0.10751830786466599, 0.033152274787425995, -0.14377504587173462, -0.097980380058288574, -0.026449616998434067, 0.026663005352020264, -0.137404665350914, 0.0046865418553352356, -0.05991782620549202, -0.051522426307201385, -0.10077539831399918, -0.21118615567684174, 0.074845887720584869, -0.028045699000358582, -0.20868644118309021, 0.11235183477401733, 0.064026102423667908, 0.070091038942337036, 0.097776643931865692, -0.20217552781105042, 0.15377458930015564, -0.23438340425491333, -0.11730606108903885, 0.13273394107818604, 0.060365002602338791, -0.23851665854454041, 0.0066203651949763298, 0.066338770091533661, 0.029637224972248077, -0.038237985223531723, -0.23708799481391907, 0.099242918193340302, -0.18140415847301483, -0.11132189631462097, 0.11138531565666199, 0.24611766636371613, 0.14141491055488586, 0.025675233453512192, -0.0024700870271772146, 0.19330078363418579, 0.040679976344108582, -0.12115378677845001, 0.17326979339122772, 0.070589751005172729, 0.051620930433273315, -0.1455160528421402, 0.12648364901542664, -0.092876680195331573, -0.13179789483547211, -0.015401885844767094, 0.067079603672027588, 0.060187958180904388, 0.15046559274196625, -0.19208358228206635, 0.10922212153673172, 0.12486446648836136, 0.21137244999408722, 0.12878116965293884, -0.13148018717765808, -0.20710337162017822, 0.1723075658082962, -0.076434649527072906, 0.19764022529125214, 0.068539999425411224, 0.094708271324634552, 0.024829963222146034, 0.041252169758081436, 0.53743010759353638, 0.15907815098762512, 0.12699191272258759, 0.15794940292835236, -0.047430023550987244, -0.041605882346630096, -0.14941677451133728, 0.042579144239425659, 0.11943398416042328, -0.19657474756240845, -0.11454197764396667, 0.55010497570037842, -0.19680774211883545, -0.18394951522350311, -0.21255354583263397, -0.19835908710956573, -0.16070108115673065, -0.13645307719707489, -0.21840563416481018, -0.16653172671794891, -0.14527390897274017, 0.11733449995517731, -0.19468651711940765, -0.0096534788608551025, -0.19792996346950531, 0.056253865361213684, -0.016480090096592903, 0.045199170708656311, -0.029221883043646812, 0.13711883127689362, 0.1116693913936615, -0.044012576341629028, 
  0.054969538003206253, 0.11219443380832672, 0.087459325790405273, -0.17591618001461029, 0.15854175388813019, 0.125244140625, -0.041389424353837967, -0.01744096539914608, 0.10922618210315704, -0.14477343857288361, -0.18283775448799133, 0.19402101635932922, 0.027592990547418594, -0.069278351962566376, -0.1839449554681778, -0.10102107375860214, 0.066123940050601959, -0.0079942569136619568, 0.17964291572570801, 0.022553045302629471, 0.001036924310028553, -0.030579499900341034, -0.038889322429895401, -0.12556394934654236, -0.073367811739444733, 0.22090531885623932, -0.14886388182640076, 0.082365207374095917, 0.20012646913528442, 0.027142854407429695, -0.047606263309717178, 0.10614699125289917, -0.060763750225305557, 0.087565883994102478, 0.16390606760978699, 0.072612076997756958, -0.0025215100031346083, 0.056493822485208511, -0.14823983609676361, 0.084973081946372986, 0.13843776285648346, -0.14611062407493591, -0.11903495341539383, 0.17535388469696045, -0.06193934753537178, -0.0029575654771178961, 0.15929688513278961, 0.13241642713546753, -0.11888278275728226, 0.20982402563095093, -0.18236599862575531, -0.12760728597640991, 0.073885872960090637, -0.11797250807285309, -0.031550038605928421, -0.0043233651667833328, -0.17097063362598419, 0.074886418879032135, 0.15336355566978455, 0.090515129268169403, -0.0065734949894249439, 0.18491239845752716, -0.084231629967689514, 0.23604781925678253, 0.20886507630348206, 0.21668075025081635, -0.24727687239646912, 0.024746211245656013, 0.031087689101696014, -0.19621077179908752, 0.09933510422706604, -0.12315550446510315, 0.11263652145862579, 0.22658886015415192, -0.13062267005443573, 0.21228748559951782, 0.10853370279073715, 0.087630420923233032, 0.17223744094371796, -0.010156827978789806, -0.083054088056087494, -0.039061307907104492, 0.16106171905994415, -0.058031853288412094, 0.1215629056096077, -0.0052099623717367649, 0.10863155871629715, 0.09212784469127655, 0.037451475858688354, -0.058241616934537888, 0.17846950888633728, -0.037141755223274231, -0.20192877948284149, -0.053617384284734726, 0.013326598331332207, 0.084278993308544159, -0.04431040957570076, -0.19200170040130615, 0.19476920366287231, -0.15644060075283051, 0.16868011653423309, 0.15597064793109894, 0.11004022508859634, -0.18087498843669891, -0.11852829158306122, 0.11260355263948441, 0.05929381400346756, -0.14974813163280487, 0.019427785649895668, 0.10685697942972183, 
  0.025651760399341583, -0.095181845128536224, -0.053472716361284256, 0.11281363666057587, -0.18483546376228333, -0.037148725241422653, 0.019195746630430222, -0.058398373425006866, 0.16162234544754028, -0.02301652729511261, -0.0050852284766733646, -0.057985566556453705, -0.10553540289402008, -0.14191041886806488, 0.041004426777362823, -0.10182376205921173, 0.080313026905059814, 0.2224629670381546, 0.22105447947978973, -0.12724736332893372, 0.18027783930301666, -0.10897209495306015, 0.044361863285303116, 0.12893776595592499, 0.092482522130012512, -0.13649585843086243, -0.041553713381290436, -0.10390207916498184, 0.21100908517837524, 0.14831595122814178, -0.12949000298976898, 0.10098110884428024, 0.037527382373809814, -0.12879180908203125, -0.032074462622404099, 0.052378743886947632, 0.011468751356005669, 0.18956217169761658, 0.030079705640673637, 0.19147571921348572, -0.10917284339666367, -0.057852234691381454, 0.12434221059083939, 0.12791319191455841, 0.087894998490810394, -0.31150275468826294, 0.28467780351638794, 0.014058143831789494, -0.047194913029670715, 0.17956437170505524, -0.031927227973937988, 0.24629694223403931, -0.095259383320808411, 0.21527150273323059, 0.15694905817508698, -0.19650453329086304, -0.18724003434181213, -0.028459819033741951, 0.14991500973701477, 0.10307621210813522, -0.12552909553050995, -0.096002556383609772, 0.21675659716129303, -0.13335695862770081, 0.19699212908744812, 0.18519259989261627, 0.16684809327125549, -0.11738663166761398, 0.17640712857246399, 0.087870724499225616, 0.019936827942728996, -0.09031396359205246, -0.11061596125364304, 0.039562173187732697, 0.087627701461315155, 0.0020992837380617857, 0.13844452798366547, 0.10213190317153931, 0.089945018291473389, -0.11402662098407745, 0.0064648105762898922, -0.1628337949514389, -0.075760073959827423, 0.068622522056102753, -0.20051166415214539, 0.10998375713825226, -0.048295609652996063, -0.068367838859558105, 0.01532698143273592, 0.0092098619788885117, -0.16383376717567444, 0.037992984056472778, 0.10353173315525055, -0.16876830160617828, -0.12900125980377197, -0.053031373769044876, 0.0029075450729578733, -0.16334050893783569, -0.11786309629678726, -0.14319419860839844, 0.036328420042991638, 0.042987499386072159, 0.054139155894517899, -0.10573555529117584, -0.014184935018420219, -0.046755608171224594, -0.16758736968040466, -0.10852046310901642, -0.14994287490844727, 0.21843001246452332, 
  -0.30131727457046509, 0.018050104379653931, -0.10094078630208969, -0.21462340652942657, 0.14280174672603607, -0.1262299120426178, 0.028265375643968582, -0.03408370167016983, 0.0080738328397274017, 0.068340346217155457, -0.063039675354957581, 0.14349967241287231, -0.14329090714454651, 0.064199559390544891, -0.056534368544816971, -0.19642934203147888, -0.16279140114784241, 0.09208233654499054, -0.06070328876376152, -0.06066618487238884, -0.15967205166816711, -0.047638323158025742, 0.10927449911832809, -0.50428098440170288, 0.059224121272563934, 0.053352110087871552, -0.14147412776947021, 0.12424417585134506, 0.044676121324300766, -0.20260785520076752, 0.1860460638999939, -0.046667724847793579, -0.17206747829914093, -0.0075677460990846157, -0.0095171593129634857, 0.11642397940158844, -0.028727516531944275, 0.084050118923187256, -0.081640832126140594, 0.037281103432178497, -0.026130933314561844, 0.044749125838279724, 0.17543748021125793, 0.19738271832466125, 0.046235408633947372, 0.064316794276237488, 0.31920045614242554, 0.15712901949882507, -0.080074846744537354, -0.19556182622909546, 0.1888098418712616, -0.064624249935150146, -0.14603430032730103, -0.036105681210756302, 0.11010041832923889, -0.1792616993188858, 0.020283499732613564, 0.33776834607124329, -0.15929509699344635, 0.25284942984580994, -0.11263004690408707, 0.040626462548971176, 0.11832264065742493, -0.20098739862442017, -0.15987619757652283, -0.13277328014373779, 0.10257542133331299, 0.17929212749004364, -0.13985621929168701, -0.17925159633159637, -0.15802919864654541, -0.092722795903682709, -0.17916984856128693, -0.1725265234708786, 0.0019016899168491364, -0.16420961916446686, -0.23385904729366302, -0.061327926814556122, 0.34441307187080383, 0.20693391561508179, 0.16429559886455536, 0.20682993531227112, -0.087274655699729919, -0.14576737582683563, -0.12630128860473633, 0.13871277868747711, 0.13617704808712006, -0.096412993967533112, 0.14790479838848114, 0.37001881003379822, 0.24488867819309235, -0.064371868968009949, 0.040053021162748337, -0.027453344315290451, 0.028799936175346375, -0.13922706246376038, 0.15603050589561462, -0.038102511316537857, 0.15092369914054871, 0.16945414245128632, -0.13113443553447723, -0.10984139144420624, -0.042974706739187241, 0.079225748777389526, -0.25185641646385193, 0.02125847339630127, 0.16578307747840881, 0.15831258893013, 0.14661791920661926, 0.062965542078018188, 
  0.16791442036628723, 0.12564592063426971, 0.0011544418521225452, -0.042701680213212967, 0.014136570505797863, 0.20011065900325775, 0.045585453510284424, 0.13438954949378967, 0.14916571974754333, 0.18884091079235077, -0.04993801936507225, 0.17444223165512085, 0.035561937838792801, -0.13125625252723694, -0.12758654356002808, 0.093993790447711945, 0.026586683467030525, 0.11893013119697571, 0.15502941608428955, 0.14340338110923767, 0.10011185705661774, -0.080714337527751923, -0.022630315274000168, 0.040847171097993851, 0.15930953621864319, -0.15618398785591125, -0.048222105950117111, 0.16067390143871307, -0.14112076163291931, 0.1152401864528656, -0.20013503730297089, 0.072129540145397186, -0.14295917749404907, -0.075676143169403076, 0.15590737760066986, -0.15386788547039032, 0.18283189833164215, 0.11622566729784012, 0.17647002637386322, -0.084175474941730499, -0.090771518647670746, -0.076525367796421051, -0.20882327854633331, -0.18090818822383881, -0.1820748895406723, -0.026272624731063843, -0.19613161683082581, 0.0072428495623171329, -0.0024846279993653297, 0.037932612001895905, -0.046412728726863861, -0.022345071658492088, 0.16529959440231323, 0.21126559376716614, 0.20905861258506775, -0.10314347594976425, 0.17934651672840118, 0.092804014682769775, -0.19614499807357788, 0.096944622695446014, -0.053363241255283356, -0.030335603281855583, 0.12889836728572845, 0.015401848591864109, 0.019094344228506088, 0.13720810413360596, 0.16050063073635101, -0.12487055361270905, 0.089175201952457428, 0.11425260454416275, -0.13160362839698792, -0.091009378433227539, 0.017921041697263718, 0.21839582920074463, -0.058552537113428116, 0.067099981009960175, -0.124794602394104, 0.086519502103328705, -0.1176927238702774, -0.029075702652335167, -0.15078547596931458, -0.059782993048429489, 0.10096710175275803, 0.19016361236572266, 0.063722170889377594, -0.051428936421871185, 0.16492258012294769, 0.21917028725147247, -0.085684217512607574, -0.16602200269699097, 0.002038230188190937, 0.17280429601669312, 0.074604429304599762, -0.12880897521972656, -0.17442211508750916, -0.15692800283432007, -0.0017563215224072337, 0.12405088543891907, -0.034279201179742813, -0.16339686512947083, -0.19498205184936523, -0.049771375954151154, 0.15897715091705322, -0.1500709056854248, 0.097399421036243439, 0.1343265026807785, -0.11547325551509857, 0.048520911484956741, 0.14727556705474854, -0.028270812705159187, 
  0.064002439379692078, 0.14418622851371765, -0.057981595396995544, -0.14467728137969971, 0.15163840353488922, -0.059207789599895477, 0.038124408572912216, -0.11479617655277252, -0.05507843941450119, 0.1985933780670166, -0.0044545293785631657, -0.13353978097438812, 0.16567322611808777, 0.27879345417022705, 0.19777648150920868, -0.18982306122779846, 0.083442911505699158, -0.022446433082222939, -0.23416279256343842, -0.096512541174888611, -0.24699133634567261, -0.031015275046229362, 0.16544255614280701, 0.12007998675107956, -0.20512542128562927, -0.05736808106303215, -0.22460997104644775, 0.0039420761168003082, 0.14293669164180756, -0.10382954031229019, 0.091594383120536804, -0.11966358125209808, -0.11384152621030807, 0.14103022217750549, -0.24310100078582764, -0.028756970539689064, -0.12326978147029877, -0.046981129795312881, -0.15405702590942383, 0.18592292070388794, -0.040503416210412979, 0.047381740063428879, 0.063817679882049561, 0.19033674895763397, -0.051969226449728012, -0.0038685048930346966, 0.040044054388999939, -0.10482678562402725, -0.015109564177691936, 0.13660033047199249, -0.045514915138483047, -0.068737536668777466, -0.064855009317398071, -0.097834259271621704, 0.2037382572889328, 0.10377287864685059, 0.38718339800834656, -0.13858355581760406, 0.085366420447826385, 0.022006914019584656, -0.2012503445148468, -0.12526561319828033, 0.041614998131990433, -0.029084326699376106, -0.047457389533519745, 0.10203146934509277, 0.15196578204631805, 0.084227621555328369, 0.14104653894901276, -0.18832191824913025, -0.21834887564182281, -0.1870189756155014, 0.039628021419048309, -0.035500384867191315, -0.1908753365278244, 0.12974967062473297, -0.01343201007694006, 0.11214572191238403, -0.21326592564582825, 0.050954241305589676, 0.011544524691998959, -0.013429577462375164, 0.18692770600318909, -0.022834457457065582, -0.11954057961702347, 0.13858754932880402, -0.13158191740512848, -0.041941888630390167, 0.028268702328205109, -0.15130817890167236, 0.15283720195293427, 0.12019876390695572, -0.14488427340984344, 0.060754459351301193, 0.032472874969244003, 0.19566719233989716, -0.19341433048248291, 0.13173800706863403, -0.1613771915435791, -0.16883459687232971, 0.14510335028171539, 0.21741241216659546, -0.037466909736394882, -0.11845659464597702, -0.058855120092630386, 0.16958510875701904, 0.067369647324085236, -0.020309383049607277, 0.10791299492120743, -0.0098996767774224281, 
  0.018815042451024055, 0.085376903414726257, -0.046833284199237823, 0.14461930096149445, 0.0039247800596058369, -0.083245061337947845, 0.076998136937618256, -0.056342348456382751, 0.054775580763816833, 0.14158344268798828, 0.19783894717693329, 0.20224729180335999, 0.0327279232442379, 0.00094681564951315522, 0.071936115622520447, 0.10129795968532562, -0.10638590157032013, -0.061775889247655869, 0.094117477536201477, 0.18754087388515472, -0.17535504698753357, -0.024633528664708138, 0.070993319153785706, -0.086489029228687286, -0.16159513592720032, 0.136127769947052, 0.10011995583772659, 0.015760665759444237, 0.14179310202598572, -0.12082488089799881, -0.26835092902183533, 0.17909447848796844, 0.040122181177139282, 0.11368819326162338, 0.22505566477775574, 0.094420596957206726, 0.29374223947525024, -0.053772211074829102, 0.16481189429759979, -0.16912932693958282, -0.059689540416002274, -0.015813278034329414, 0.1461198478937149, -0.028645727783441544, -0.10953009873628616, -0.017283180728554726, -0.050218719989061356, 0.088100053369998932, 0.064349457621574402, 0.22916154563426971, -0.093969687819480896, -0.095551110804080963, -0.030355650931596756, -0.039769720286130905, 0.17231747508049011, 0.13134299218654633, -0.02247832715511322, 0.24467043578624725, -0.14286036789417267, -0.059293594211339951, 0.0093577150255441666, 0.017991926521062851, 0.21716699004173279, -0.033662356436252594, 0.0050477860495448112, 0.16044081747531891, 0.038267713040113449, 0.080644093453884125, -0.22195588052272797, 0.16202941536903381, 0.14513471722602844, -0.18925812840461731, -0.017981667071580887, 0.057210274040699005, 0.1748664379119873, -0.17572332918643951, 0.062643349170684814, 0.0034475075080990791, -0.13202375173568726, 0.20984739065170288, 0.048031296581029892, -0.11721257120370865, 0.11234050244092941, -0.035041172057390213, 0.12381546199321747, 0.10931443423032761, 0.13331352174282074, -0.12068803608417511, -0.18524493277072906, 0.13042883574962616, -0.034452002495527267, 0.14131951332092285, -0.1268085390329361, -0.027090033516287804, 0.11320014297962189, -0.012341863475739956, 0.13707014918327332, 0.14310303330421448, 0.16481134295463562, 0.13896588981151581, -0.1600758284330368, 0.021346159279346466, -0.036830559372901917, -0.18118719756603241, 0.03231058269739151, -0.092751234769821167, 0.13662728667259216, 0.0060529708862304688, -0.1690351814031601, 0.2332710325717926, 
  -0.08148549497127533, -0.46682089567184448, 0.24505841732025146, -0.054248470813035965, 0.13638526201248169, -0.077433466911315918, 0.15592162311077118, 0.14812059700489044, 0.068712055683135986, 0.0048349099233746529, -0.10270547121763229, -0.042352266609668732, -0.13557186722755432, -0.20656910538673401, 0.0053628585301339626, -0.076124601066112518, -0.10443433374166489, -0.094107590615749359, -0.11163584887981415, -0.075432203710079193, 0.11189229041337967, 0.15168365836143494, -0.098735451698303223, 0.3895753026008606, 0.073353469371795654, 0.0044509833678603172, -0.15610325336456299, -0.007882208563387394, -0.062337357550859451, 0.038230322301387787, 0.091261737048625946, 0.041782386600971222, 0.15427474677562714, 0.12419228255748749, 0.47998735308647156, -0.34417667984962463, -0.015048072673380375, -0.058979842811822891, -0.23703476786613464, -0.16596852242946625, -0.10437541455030441, -0.22629991173744202, 0.10497795790433884, -0.26866573095321655, -0.085612863302230835, -0.027862701565027237, 0.074637927114963531, -0.2748110294342041, 0.084090657532215118, -0.043575286865234375, -0.20614108443260193, -0.075560092926025391, 0.060861349105834961, 0.057445865124464035, -0.084524527192115784, -0.12652090191841125, -0.39416968822479248, 0.00071077508619055152, 0.086819596588611603, 0.10404709726572037, -0.23852212727069855, 0.073942393064498901, -0.045282922685146332, -0.057452332228422165, -0.21728904545307159, 0.054350085556507111, 0.2209170013666153, -0.016742950305342674, -0.2318246066570282, -0.19579951465129852, 0.14844761788845062, -0.041124928742647171, 0.1588948518037796, 0.0013643893180415034, -0.06858101487159729, 0.056274857372045517, 0.16786913573741913, -0.42821583151817322, -0.25277870893478394, -0.086640238761901855, 0.05249786376953125, -0.248536616563797, -0.14511603116989136, 0.044480882585048676, -0.13485594093799591, 0.074489377439022064, -0.096714325249195099, 0.062075011432170868, -0.13473644852638245, -0.3241448700428009, -0.018511563539505005, 0.19843295216560364, 0.12459469586610794, -0.18432153761386871, 0.10155541449785233, -0.032758839428424835, -0.2212531715631485, -0.066868364810943604, -0.012574995867908001, -0.11151850968599319, -0.11605613678693771, -0.086896248161792755, -0.19599127769470215, -0.048054773360490799, -0.12157288938760757, -0.13455107808113098, -0.084587574005126953, -0.1397232711315155, 0.18728184700012207, 0.19093766808509827, 
  -0.042015925049781799, 0.39755481481552124, -0.15828877687454224, 0.18792489171028137, 0.038744919002056122, 0.25700274109840393, -0.090881489217281342, -0.15980976819992065, -0.050971105694770813, 0.20702832937240601, 0.054869156330823898, 0.13427712023258209, 0.20445370674133301, -0.073317818343639374, 0.36767354607582092, -0.07276386022567749, 0.093254417181015015, 0.26402628421783447, 0.18879164755344391, 0.074785605072975159, 0.085877165198326111, 0.022244501858949661, 0.030045187100768089, -0.12633924186229706, -0.0053284335881471634, -0.020633798092603683, 0.14626669883728027, 0.095124460756778717, 0.036868736147880554, -0.014568600803613663, -0.29730600118637085, -0.22927525639533997, -0.20556722581386566, 0.13196094334125519, 0.14380651712417603, -0.01037096232175827, 0.029388422146439552, 0.1978103369474411, 0.071341514587402344, 0.24883893132209778, 0.19191737473011017, -0.17044980823993683, 0.13456213474273682, 0.025273215025663376, -0.043007787317037582, -0.11237367987632751, -0.079164430499076843, 0.31152722239494324, 0.018159497529268265, 0.25251227617263794, 0.10945256799459457, 0.19312308728694916, 0.068103902041912079, 0.081861123442649841, 0.079621896147727966, 0.20179812610149384, 0.026017883792519569, -0.026101110503077507, 0.02967466413974762, -0.074976086616516113, 0.22584110498428345, -0.085743635892868042, -0.11279632151126862, -0.043912682682275772, 0.066195376217365265, 0.24174155294895172, -0.15889808535575867, -0.27124494314193726, -0.16159471869468689, -0.053655758500099182, 0.18158183991909027, -0.027173243463039398, 0.063613548874855042, -0.098828397691249847, -0.077815130352973938, 0.17041191458702087, -0.078806698322296143, -0.042670987546443939, -0.23410555720329285, 0.24148149788379669, 0.00620694225654006, 0.15823674201965332, 0.093128331005573273, -0.15413579344749451, -0.10534799844026566, -0.23959408700466156, -0.14165389537811279, 0.063570573925971985, 0.09070868045091629, 0.05205029621720314, -0.13262194395065308, 0.0074112215079367161, 0.02896331250667572, -0.057746198028326035, 0.12135599553585052, 0.014880569651722908, -0.17457261681556702, -0.066209524869918823, 0.011251902207732201, 0.0038012862205505371, -0.097826138138771057, -0.17094288766384125, 0.07462841272354126, -0.07365882396697998, 0.051739107817411423, 0.21125191450119019, -0.068477258086204529, 0.036800425499677658, 0.091665968298912048, -0.0019643544219434261, 
  -0.13454176485538483, 0.20688191056251526, 0.099942274391651154, 0.081013068556785583, 0.037628393620252609, 0.044200431555509567, 0.017625680193305016, -0.059724181890487671, 0.014220339246094227, 0.10544817894697189, 0.047557048499584198, -0.15539164841175079, -0.17443569004535675, -0.18711033463478088, -0.094778023660182953, 0.14210575819015503, 0.19147220253944397, 0.14137870073318481, -0.13589532673358917, 0.015278507024049759, -0.060439508408308029, -0.1490267813205719, -0.07469533383846283, 0.1526806503534317, 0.12069480121135712, 0.12693291902542114, 0.00098682160023599863, 0.068142883479595184, 0.25238132476806641, 0.23912760615348816, 0.05980229377746582, 0.0037141300272196531, 0.023663416504859924, 0.1516605019569397, 0.055501628667116165, 0.028163403272628784, 0.020858218893408775, -0.029266621917486191, -0.12650462985038757, 0.12533296644687653, 0.094914667308330536, 0.24906574189662933, -0.079223871231079102, -0.11987319588661194, 0.10974238812923431, 0.06778610497713089, 0.082277469336986542, 0.18534451723098755, 0.23887071013450623, 0.089227922260761261, 0.22269865870475769, 0.20325994491577148, 0.0022645746357738972, 0.10155533254146576, -0.013500024564564228, 0.045505188405513763, -0.19176113605499268, -0.051669444888830185, 0.059518877416849136, -0.046495925635099411, -0.047365698963403702, -0.028855305165052414, -0.0082092592492699623, 0.2410745769739151, -0.007289455272257328, -0.027759650722146034, -0.029460033401846886, 0.085017785429954529, 0.050790291279554367, 0.25194883346557617, -0.036974340677261353, -0.11759434640407562, 0.18545867502689362, 0.011167432181537151, 0.095797769725322723, -0.15131236612796783, 0.21654891967773438, -0.00071573752211406827, 0.1280643492937088, 0.24681232869625092, 0.14391060173511505, 0.24874946475028992, 0.12288735806941986, -0.16156455874443054, 0.11248891800642014, 0.14153867959976196, 0.045561328530311584, -0.10669694840908051, 0.025781113654375076, -0.059079576283693314, -0.19717966020107269, 0.14658917486667633, 0.15441763401031494, 0.09339875727891922, -0.14495453238487244, -0.13152231276035309, 0.15245905518531799, 0.11738226562738419, 0.18907466530799866, 0.14529769122600555, 0.21456490457057953, 0.14426915347576141, -0.17406797409057617, -0.0038915709592401981, 0.091867648065090179, 0.0543842613697052, -0.17656451463699341, 0.098289422690868378, 0.10103797167539597, 0.011289738118648529, 
  -0.11460284888744354, 0.032463435083627701, -0.18391181528568268, -0.20186923444271088, 0.16859911382198334, -0.10967511683702469, 0.015029181726276875, 0.13092145323753357, -0.14246338605880737, -0.0044182124547660351, -0.0052887802012264729, 0.070837989449501038, 0.050906486809253693, -0.044811252504587173, -0.055265676230192184, -0.084226325154304504, -0.012743320316076279, -0.05587029829621315, -0.13367518782615662, 0.14985373616218567, -0.21487057209014893, -0.084223970770835876, 0.091928295791149139, -0.18513458967208862, 0.2098018079996109, -0.048560906201601028, -0.1721063107252121, 0.18157394230365753, 0.10088000446557999, 0.086682893335819244, 0.10333101451396942, 0.013225610367953777, 0.011089865118265152, 0.025416972115635872, -0.17389708757400513, -0.1792638748884201, 0.17084799706935883, 0.014588502235710621, -0.197429358959198, 0.015165627934038639, -0.18823355436325073, 0.11278565227985382, -0.18493866920471191, 0.13799005746841431, 0.17762751877307892, 0.18141362071037292, 0.1492220014333725, 0.15942980349063873, 0.0014239948941394687, -0.1800905168056488, -0.11282722651958466, 0.11574629694223404, -0.12175383418798447, 0.16712981462478638, 0.17536860704421997, -0.1595226377248764, -0.0027138537261635065, -0.044501468539237976, 0.069531098008155823, -0.19252149760723114, 0.14129656553268433, -0.073968105018138885, 0.11943972110748291, 0.14234177768230438, 0.16024233400821686, -0.086526878178119659, -0.073694273829460144, -0.088867664337158203, -0.0042103780433535576, 0.06189567968249321, 0.17495019733905792, 0.16165027022361755, -0.18730278313159943, -0.17006011307239532, 0.11914211511611938, 0.17845730483531952, -0.15931463241577148, -0.071412913501262665, 0.12698112428188324, -0.18002723157405853, 0.16309624910354614, -0.18913149833679199, -0.07106376439332962, -0.18859581649303436, 0.171306312084198, 0.007955554872751236, 0.21022987365722656, -0.16386446356773376, -0.098505489528179169, -0.14540655910968781, 0.037261541932821274, -0.14343880116939545, -0.15421736240386963, 0.18618524074554443, 0.22340746223926544, -0.096838027238845825, 0.14861926436424255, -0.139642134308815, 0.14008976519107819, 0.12020893394947052, 0.06389935314655304, 0.23091992735862732, 0.206107497215271, -0.093641795217990875, 0.03926459327340126, -0.026877619326114655, -0.026716167107224464, 0.12059513479471207, -0.033689118921756744, -0.079521059989929199, 
  -0.10046987235546112, 0.0044247363694012165, 0.27246338129043579, 0.21131440997123718, 0.15922407805919647, 0.094381369650363922, 0.047700691968202591, -0.10596447438001633, -0.015465197153389454, -0.032874859869480133, -0.17046181857585907, -0.09854733943939209, -0.20682421326637268, -0.077326320111751556, -0.086527861654758453, 0.15687751770019531, -0.036951515823602676, -0.0020308922976255417, -0.12083218991756439, 0.031850952655076981, 0.1859620213508606, -0.16670089960098267, -0.043810430914163589, -0.13089770078659058, -0.27663210034370422, -0.14638340473175049, 0.21600711345672607, -0.0025557035114616156, 0.063993409276008606, 0.019553720951080322, 0.20559300482273102, 0.14503692090511322, 0.21505489945411682, 0.045451924204826355, 0.22720041871070862, 0.036121606826782227, 0.1051793247461319, -0.0094864815473556519, 0.054688148200511932, 0.1306111067533493, -0.072391144931316376, -0.19985678791999817, 0.04221745952963829, -0.098142892122268677, 0.22721397876739502, 0.17148669064044952, -0.064831331372261047, 0.10878406465053558, 0.096337653696537018, -0.0071375491097569466, 0.0050037922337651253, -0.17398405075073242, -0.13965101540088654, -0.13518218696117401, 0.064071990549564362, -0.10713399946689606, -0.26206430792808533, 0.055762309581041336, -0.14947238564491272, 0.12604358792304993, 0.062333356589078903, -0.046419307589530945, 0.24891050159931183, -0.16254447400569916, 0.16789312660694122, 0.11253994703292847, -0.075130149722099304, 0.16503025591373444, -0.15118148922920227, 0.1182013601064682, 0.068123944103717804, -0.1129039004445076, -0.013861870393157005, -0.17647361755371094, 0.18726466596126556, -0.13227415084838867, -0.12283849716186523, -0.072294086217880249, 0.055869508534669876, -0.11589911580085754, -0.17352926731109619, 0.091335475444793701, -0.11177100986242294, -0.21281419694423676, -0.22765728831291199, -0.13088516891002655, -0.014133698306977749, 0.029689373448491096, -0.059848979115486145, 0.03667508065700531, -0.11305902898311615, 0.18975116312503815, 0.038991890847682953, -0.10977912694215775, 0.036479733884334564, 0.18026460707187653, 0.024925202131271362, 0.20154660940170288, -0.043297559022903442, 0.047729119658470154, -0.13702398538589478, -0.11786951124668121, -0.068663999438285828, 0.18645778298377991, -0.1254141628742218, 0.093986377120018005, -0.11964978277683258, -0.079011201858520508, 0.068037644028663635, 0.10050050914287567, 
  -0.070394806563854218, 0.10235696285963058, 0.15543931722640991, 0.091908678412437439, 0.03536573052406311, -0.015614873729646206, -0.0066933231428265572, -0.1918642520904541, 0.17837920784950256, 0.18264614045619965, -0.057670757174491882, 0.15202426910400391, -0.015977157279849052, -0.056046843528747559, 0.16702242195606232, 0.05945650115609169, 0.039204541593790054, -0.20780502259731293, 0.05127977579832077, -0.040362056344747543, -0.075303539633750916, 0.11037079244852066, 0.17497406899929047, -0.19674289226531982, 0.15256695449352264, 0.18935683369636536, -0.014071319252252579, 0.18762081861495972, -0.19823560118675232, -0.21994267404079437, -0.21137893199920654, -0.16096462309360504, 0.20725339651107788, 0.10042675584554672, 0.068698830902576447, 0.037918873131275177, 0.15918149054050446, -0.10932214558124542, 0.10187022387981415, -0.058112639933824539, -0.1754627525806427, -0.098087914288043976, 0.18797825276851654, 0.071777090430259705, -0.13121391832828522, 0.02704346738755703, -0.019054774194955826, 0.14176581799983978, -0.10478153079748154, -0.22408169507980347, 0.1730695366859436, 0.13873524963855743, -0.075944937765598297, -0.072421535849571228, -0.082773931324481964, -0.0039834403432905674, 0.17856450378894806, -0.17989666759967804, 0.023662975057959557, -0.086013317108154297, 0.04533197358250618, -0.1628982275724411, 0.05024433508515358, -0.16808967292308807, -0.12657858431339264, 0.16280998289585114, 0.19204875826835632, 0.15193293988704681, 0.039223775267601013, -0.13389326632022858, 0.15084592998027802, -0.1251617968082428, 0.018432322889566422, -0.085495516657829285, -0.18130891025066376, 0.13850018382072449, 0.1143975555896759, 0.043641857802867889, -0.053670573979616165, 0.18053917586803436, 0.010748746804893017, 0.19414518773555756, -0.031293764710426331, 0.050151001662015915, -0.17259590327739716, 0.22207112610340118, -0.0044659571722149849, 0.18308520317077637, -0.20179156959056854, 0.12884686887264252, -0.054063349962234497, -0.011803849600255489, 0.094505339860916138, -0.18938487768173218, 0.11813383549451828, 0.17048735916614532, 0.059020057320594788, 0.20683838427066803, 0.21187384426593781, 0.18944813311100006, -0.042795881628990173, 0.064538031816482544, 0.15748885273933411, 0.12084052711725235, 0.15538954734802246, -0.10810227692127228, 0.032932277768850327, 0.027028990909457207, 0.024469763040542603, 0.13659018278121948, 
};
const TfArray<2, int> tensor_dimension4 = { 2, { 20,110 } };
const ALIGN(16) float tensor_data5[10*20] = { 
  -0.2890414297580719, -0.0066198594868183136, 0.12290698289871216, 0.070699945092201233, 0.56792360544204712, -0.29669103026390076, -0.096496626734733582, 0.091041602194309235, -0.37812668085098267, -0.49673342704772949, -0.13875217735767365, -0.25207963585853577, 0.39592486619949341, 0.33196389675140381, -0.10400727391242981, -0.010284881107509136, -0.38365313410758972, 0.048809610307216644, -0.25099977850914001, 0.045776978135108948, 
  -0.18359282612800598, 0.19230706989765167, -0.2165655642747879, 0.29781201481819153, 0.15739697217941284, 0.15521475672721863, 0.47339865565299988, -0.11490150541067123, -0.098754636943340302, -0.21387751400470734, 0.20183882117271423, -0.33239167928695679, -0.001820762874558568, -0.17521801590919495, -0.076363429427146912, -0.33769705891609192, -0.1008598804473877, 0.1794721782207489, 0.21306496858596802, -0.36843103170394897, 
  -0.34195542335510254, 0.28511920571327209, 0.10381579399108887, -0.15906988084316254, 0.45546895265579224, -0.016072448343038559, 0.17320834100246429, -0.2147696316242218, 0.32872679829597473, 0.30639132857322693, -0.26398965716362, -0.20291908085346222, 0.12917947769165039, -0.41213583946228027, 0.1916772723197937, -0.17539922893047333, -0.10645584762096405, 0.40943977236747742, -0.34769335389137268, -0.12437179684638977, 
  -0.30967193841934204, -0.088597767055034637, -0.26081410050392151, -0.34066957235336304, -0.16694952547550201, 0.2143407016992569, 0.28341040015220642, 0.31012594699859619, 0.46587780117988586, -0.2864052951335907, 0.36815887689590454, 0.19384607672691345, 0.024281185120344162, -0.16749225556850433, -0.21025918424129486, 0.52405416965484619, 0.10433381795883179, 0.15419404208660126, 0.094193674623966217, -0.27938643097877502, 
  0.15631699562072754, -0.025032488629221916, -0.23178304731845856, -0.32649126648902893, -0.33735939860343933, 0.49606552720069885, -0.056489989161491394, -0.087847985327243805, -0.14904317259788513, 0.44929459691047668, -0.17709267139434814, -0.36721876263618469, -0.3051932156085968, 0.29078409075737, -0.14166957139968872, 0.23253187537193298, 0.11524461209774017, -0.32969397306442261, 0.47484523057937622, 0.11065866053104401, 
  0.2600691020488739, 0.46476787328720093, -0.34178513288497925, -0.094148904085159302, -0.23582255840301514, -0.0075557404197752476, -0.013734865933656693, 0.053584609180688858, 0.52465552091598511, -0.29296216368675232, -0.57460880279541016, 0.46289283037185669, -0.32476913928985596, 0.33555051684379578, -0.16295729577541351, 0.43519911170005798, -0.30375775694847107, -0.002358676865696907, -0.28442645072937012, 0.31217986345291138, 
  0.2759585976600647, -0.15402951836585999, 0.049364060163497925, 0.29516971111297607, 0.17687343060970306, -0.17012967169284821, 0.0083309011533856392, 0.17147758603096008, 0.14556029438972473, 0.3261699378490448, -0.25755953788757324, 0.24819649755954742, -0.4835720956325531, -0.077066868543624878, -0.074605189263820648, -0.07751397043466568, 0.13232970237731934, -0.10465211421251297, 0.12390074133872986, -0.19546115398406982, 
  -0.35677069425582886, 0.4543033242225647, -0.23938150703907013, -0.60522383451461792, -0.24981352686882019, 0.045970778912305832, -0.17096371948719025, -0.25898462533950806, 0.38612973690032959, 0.44134435057640076, 0.34137460589408875, 0.40930461883544922, -0.020458310842514038, -0.027390411123633385, -0.080433651804924011, -0.17205525934696198, -0.26864701509475708, 0.066747091710567474, -0.3075602650642395, 0.19074410200119019, 
  -0.34515911340713501, 0.24343983829021454, 0.030253827571868896, 0.15898388624191284, 0.485634446144104, -0.033735461533069611, 0.16629187762737274, -0.45756816864013672, -0.12639179825782776, -0.34045872092247009, 0.084118098020553589, 0.29949694871902466, 0.33071973919868469, 0.41313824057579041, -0.20805518329143524, 0.16770635545253754, -0.37704369425773621, 0.38217794895172119, -0.074579797685146332, 0.006659449078142643, 
  -0.083911195397377014, 0.10256211459636688, 0.090843796730041504, 0.27449861168861389, -0.40741634368896484, 0.2324642539024353, 0.2467324435710907, -0.35032221674919128, 0.27632519602775574, -0.20172381401062012, -0.15712323784828186, 0.094177976250648499, -0.39524370431900024, -0.1994980126619339, -0.4050426185131073, 0.042923323810100555, 0.3806326687335968, 0.38982361555099487, -0.13687556982040405, 0.39335596561431885, 
};
const TfArray<2, int> tensor_dimension5 = { 2, { 10,20 } };
const ALIGN(16) float tensor_data6[4*10] = { 
  -0.28446885943412781, 0.046852134168148041, 0.082594439387321472, 0.37432393431663513, -0.16834747791290283, -0.39369207620620728, -0.445810467004776, 0.24798400700092316, 0.17625764012336731, 0.21558798849582672, 
  0.4897429347038269, -0.17884489893913269, 0.46478304266929626, 0.21744374930858612, -0.051142387092113495, 0.086248941719532013, 0.40713822841644287, -0.41258841753005981, 0.30986607074737549, 0.53970819711685181, 
  -0.65755361318588257, -0.73657536506652832, -0.48183900117874146, 0.48836380243301392, 0.35576751828193665, 0.40458580851554871, 0.064723946154117584, -0.20049437880516052, 0.20558512210845947, -0.53220230340957642, 
  -0.54957878589630127, 0.65495163202285767, 0.46567556262016296, 0.013305374421179295, 0.13735666871070862, -0.31580343842506409, -0.026519715785980225, -0.58363747596740723, -0.64834725856781006, 0.63974344730377197, 
};
const TfArray<2, int> tensor_dimension6 = { 2, { 4,10 } };
const TfArray<2, int> tensor_dimension7 = { 2, { 1,20 } };
const TfArray<2, int> tensor_dimension8 = { 2, { 1,10 } };
const TfArray<2, int> tensor_dimension9 = { 2, { 1,4 } };
const TfArray<2, int> tensor_dimension10 = { 2, { 1,4 } };
const TfLiteFullyConnectedParams opdata0 = { kTfLiteActRelu, kTfLiteFullyConnectedWeightsFormatDefault, false, false };
const TfArray<3, int> inputs0 = { 3, { 0,4,3 } };
const TfArray<1, int> outputs0 = { 1, { 7 } };
const TfLiteFullyConnectedParams opdata1 = { kTfLiteActRelu, kTfLiteFullyConnectedWeightsFormatDefault, false, false };
const TfArray<3, int> inputs1 = { 3, { 7,5,2 } };
const TfArray<1, int> outputs1 = { 1, { 8 } };
const TfLiteFullyConnectedParams opdata2 = { kTfLiteActNone, kTfLiteFullyConnectedWeightsFormatDefault, false, false };
const TfArray<3, int> inputs2 = { 3, { 8,6,1 } };
const TfArray<1, int> outputs2 = { 1, { 9 } };
const TfLiteSoftmaxParams opdata3 = { 1 };
const TfArray<1, int> inputs3 = { 1, { 9 } };
const TfArray<1, int> outputs3 = { 1, { 10 } };
const TensorInfo_t tensorData[] = {
  { kTfLiteArenaRw, tensor_arena + 0, (TfLiteIntArray*)&tensor_dimension0, 440, },
  { kTfLiteMmapRo, (void*)tensor_data1, (TfLiteIntArray*)&tensor_dimension1, 16, },
  { kTfLiteMmapRo, (void*)tensor_data2, (TfLiteIntArray*)&tensor_dimension2, 40, },
  { kTfLiteMmapRo, (void*)tensor_data3, (TfLiteIntArray*)&tensor_dimension3, 80, },
  { kTfLiteMmapRo, (void*)tensor_data4, (TfLiteIntArray*)&tensor_dimension4, 8800, },
  { kTfLiteMmapRo, (void*)tensor_data5, (TfLiteIntArray*)&tensor_dimension5, 800, },
  { kTfLiteMmapRo, (void*)tensor_data6, (TfLiteIntArray*)&tensor_dimension6, 160, },
  { kTfLiteArenaRw, tensor_arena + 448, (TfLiteIntArray*)&tensor_dimension7, 80, },
  { kTfLiteArenaRw, tensor_arena + 0, (TfLiteIntArray*)&tensor_dimension8, 40, },
  { kTfLiteArenaRw, tensor_arena + 48, (TfLiteIntArray*)&tensor_dimension9, 16, },
  { kTfLiteArenaRw, tensor_arena + 0, (TfLiteIntArray*)&tensor_dimension10, 16, },
};const NodeInfo_t nodeData[] = {
  { (TfLiteIntArray*)&inputs0, (TfLiteIntArray*)&outputs0, const_cast<void*>(static_cast<const void*>(&opdata0)), OP_FULLY_CONNECTED, },
  { (TfLiteIntArray*)&inputs1, (TfLiteIntArray*)&outputs1, const_cast<void*>(static_cast<const void*>(&opdata1)), OP_FULLY_CONNECTED, },
  { (TfLiteIntArray*)&inputs2, (TfLiteIntArray*)&outputs2, const_cast<void*>(static_cast<const void*>(&opdata2)), OP_FULLY_CONNECTED, },
  { (TfLiteIntArray*)&inputs3, (TfLiteIntArray*)&outputs3, const_cast<void*>(static_cast<const void*>(&opdata3)), OP_SOFTMAX, },
};
static void* overflow_buffers[EI_MAX_OVERFLOW_BUFFER_COUNT];
static size_t overflow_buffers_ix = 0;
static void * AllocatePersistentBuffer(struct TfLiteContext* ctx,
                                       size_t bytes) {
  void *ptr;
  if (current_location - bytes < tensor_boundary) {
    if (overflow_buffers_ix > EI_MAX_OVERFLOW_BUFFER_COUNT - 1) {
      ei_printf("ERR: Failed to allocate persistent buffer of size %d, does not fit in tensor arena and reached EI_MAX_OVERFLOW_BUFFER_COUNT\n",
        (int)bytes);
      return NULL;
    }

    // OK, this will look super weird, but.... we have CMSIS-NN buffers which
    // we cannot calculate beforehand easily.
    ptr = ei_calloc(bytes, 1);
    if (ptr == NULL) {
      ei_printf("ERR: Failed to allocate persistent buffer of size %d\n", (int)bytes);
      return NULL;
    }
    overflow_buffers[overflow_buffers_ix++] = ptr;
    return ptr;
  }

  current_location -= bytes;

  ptr = current_location;
  memset(ptr, 0, bytes);

  return ptr;
}
typedef struct {
  size_t bytes;
  void *ptr;
} scratch_buffer_t;
static scratch_buffer_t scratch_buffers[EI_MAX_SCRATCH_BUFFER_COUNT];
static size_t scratch_buffers_ix = 0;

static TfLiteStatus RequestScratchBufferInArena(struct TfLiteContext* ctx, size_t bytes,
                                                int* buffer_idx) {
  if (scratch_buffers_ix > EI_MAX_SCRATCH_BUFFER_COUNT - 1) {
    ei_printf("ERR: Failed to allocate scratch buffer of size %d, reached EI_MAX_SCRATCH_BUFFER_COUNT\n",
      (int)bytes);
    return kTfLiteError;
  }

  scratch_buffer_t b;
  b.bytes = bytes;

  b.ptr = AllocatePersistentBuffer(ctx, b.bytes);
  if (!b.ptr) {
    ei_printf("ERR: Failed to allocate scratch buffer of size %d\n",
      (int)bytes);
    return kTfLiteError;
  }

  scratch_buffers[scratch_buffers_ix] = b;
  *buffer_idx = scratch_buffers_ix;

  scratch_buffers_ix++;

  return kTfLiteOk;
}

static void* GetScratchBuffer(struct TfLiteContext* ctx, int buffer_idx) {
  if (buffer_idx > (int)scratch_buffers_ix) {
    return NULL;
  }
  return scratch_buffers[buffer_idx].ptr;
}

static TfLiteTensor* GetTensor(const struct TfLiteContext* context,
                               int tensor_idx) {
  return &tflTensors[tensor_idx];
}

static TfLiteEvalTensor* GetEvalTensor(const struct TfLiteContext* context,
                                       int tensor_idx) {
  return &tflEvalTensors[tensor_idx];
}

} // namespace

TfLiteStatus trained_model_init( void*(*alloc_fnc)(size_t,size_t) ) {
#ifdef EI_CLASSIFIER_ALLOCATION_HEAP
  tensor_arena = (uint8_t*) alloc_fnc(16, kTensorArenaSize);
  if (!tensor_arena) {
    ei_printf("ERR: failed to allocate tensor arena\n");
    return kTfLiteError;
  }
#else
  memset(tensor_arena, 0, kTensorArenaSize);
#endif
  tensor_boundary = tensor_arena;
  current_location = tensor_arena + kTensorArenaSize;
  ctx.AllocatePersistentBuffer = &AllocatePersistentBuffer;
  ctx.RequestScratchBufferInArena = &RequestScratchBufferInArena;
  ctx.GetScratchBuffer = &GetScratchBuffer;
  ctx.GetTensor = &GetTensor;
  ctx.GetEvalTensor = &GetEvalTensor;
  ctx.tensors = tflTensors;
  ctx.tensors_size = 11;
  for (size_t i = 0; i < 11; ++i) {
    tflTensors[i].type = kTfLiteFloat32;
    tflEvalTensors[i].type = kTfLiteFloat32;
    tflTensors[i].is_variable = 0;

#if defined(EI_CLASSIFIER_ALLOCATION_HEAP)
    tflTensors[i].allocation_type = tensorData[i].allocation_type;
#else
    tflTensors[i].allocation_type = (tensor_arena <= tensorData[i].data && tensorData[i].data < tensor_arena + kTensorArenaSize) ? kTfLiteArenaRw : kTfLiteMmapRo;
#endif
    tflTensors[i].bytes = tensorData[i].bytes;
    tflTensors[i].dims = tensorData[i].dims;
    tflEvalTensors[i].dims = tensorData[i].dims;

#if defined(EI_CLASSIFIER_ALLOCATION_HEAP)
    if(tflTensors[i].allocation_type == kTfLiteArenaRw){
      uint8_t* start = (uint8_t*) ((uintptr_t)tensorData[i].data + (uintptr_t) tensor_arena);

     tflTensors[i].data.data =  start;
     tflEvalTensors[i].data.data =  start;
    }
    else {
       tflTensors[i].data.data = tensorData[i].data;
       tflEvalTensors[i].data.data = tensorData[i].data;
    }
#else
    tflTensors[i].data.data = tensorData[i].data;
    tflEvalTensors[i].data.data = tensorData[i].data;
#endif // EI_CLASSIFIER_ALLOCATION_HEAP
    tflTensors[i].quantization.type = kTfLiteNoQuantization;
    if (tflTensors[i].allocation_type == kTfLiteArenaRw) {
      auto data_end_ptr = (uint8_t*)tflTensors[i].data.data + tensorData[i].bytes;
      if (data_end_ptr > tensor_boundary) {
        tensor_boundary = data_end_ptr;
      }
    }
  }
  if (tensor_boundary > current_location /* end of arena size */) {
    ei_printf("ERR: tensor arena is too small, does not fit model - even without scratch buffers\n");
    return kTfLiteError;
  }
  registrations[OP_FULLY_CONNECTED] = Register_FULLY_CONNECTED();
  registrations[OP_SOFTMAX] = Register_SOFTMAX();

  for (size_t i = 0; i < 4; ++i) {
    tflNodes[i].inputs = nodeData[i].inputs;
    tflNodes[i].outputs = nodeData[i].outputs;
    tflNodes[i].builtin_data = nodeData[i].builtin_data;
tflNodes[i].custom_initial_data = nullptr;
      tflNodes[i].custom_initial_data_size = 0;
if (registrations[nodeData[i].used_op_index].init) {
      tflNodes[i].user_data = registrations[nodeData[i].used_op_index].init(&ctx, (const char*)tflNodes[i].builtin_data, 0);
    }
  }
  for (size_t i = 0; i < 4; ++i) {
    if (registrations[nodeData[i].used_op_index].prepare) {
      TfLiteStatus status = registrations[nodeData[i].used_op_index].prepare(&ctx, &tflNodes[i]);
      if (status != kTfLiteOk) {
        return status;
      }
    }
  }
  return kTfLiteOk;
}

static const int inTensorIndices[] = {
  0, 
};
TfLiteTensor* trained_model_input(int index) {
  return &ctx.tensors[inTensorIndices[index]];
}

static const int outTensorIndices[] = {
  10, 
};
TfLiteTensor* trained_model_output(int index) {
  return &ctx.tensors[outTensorIndices[index]];
}

TfLiteStatus trained_model_invoke() {
  for (size_t i = 0; i < 4; ++i) {
    TfLiteStatus status = registrations[nodeData[i].used_op_index].invoke(&ctx, &tflNodes[i]);

#if EI_CLASSIFIER_PRINT_STATE
    ei_printf("layer %lu\n", i);
    ei_printf("    inputs:\n");
    for (size_t ix = 0; ix < tflNodes[i].inputs->size; ix++) {
      auto d = tensorData[tflNodes[i].inputs->data[ix]];

      size_t data_ptr = (size_t)d.data;

      if (d.allocation_type == kTfLiteArenaRw) {
        data_ptr = (size_t)tensor_arena + data_ptr;
      }

      if (d.type == TfLiteType::kTfLiteInt8) {
        int8_t* data = (int8_t*)data_ptr;
        ei_printf("        %lu (%zu bytes, ptr=%p, alloc_type=%d, type=%d): ", ix, d.bytes, data, (int)d.allocation_type, (int)d.type);
        for (size_t jx = 0; jx < d.bytes; jx++) {
          ei_printf("%d ", data[jx]);
        }
      }
      else {
        float* data = (float*)data_ptr;
        ei_printf("        %lu (%zu bytes, ptr=%p, alloc_type=%d, type=%d): ", ix, d.bytes, data, (int)d.allocation_type, (int)d.type);
        for (size_t jx = 0; jx < d.bytes / 4; jx++) {
          ei_printf("%f ", data[jx]);
        }
      }
      ei_printf("\n");
    }
    ei_printf("\n");

    ei_printf("    outputs:\n");
    for (size_t ix = 0; ix < tflNodes[i].outputs->size; ix++) {
      auto d = tensorData[tflNodes[i].outputs->data[ix]];

      size_t data_ptr = (size_t)d.data;

      if (d.allocation_type == kTfLiteArenaRw) {
        data_ptr = (size_t)tensor_arena + data_ptr;
      }

      if (d.type == TfLiteType::kTfLiteInt8) {
        int8_t* data = (int8_t*)data_ptr;
        ei_printf("        %lu (%zu bytes, ptr=%p, alloc_type=%d, type=%d): ", ix, d.bytes, data, (int)d.allocation_type, (int)d.type);
        for (size_t jx = 0; jx < d.bytes; jx++) {
          ei_printf("%d ", data[jx]);
        }
      }
      else {
        float* data = (float*)data_ptr;
        ei_printf("        %lu (%zu bytes, ptr=%p, alloc_type=%d, type=%d): ", ix, d.bytes, data, (int)d.allocation_type, (int)d.type);
        for (size_t jx = 0; jx < d.bytes / 4; jx++) {
          ei_printf("%f ", data[jx]);
        }
      }
      ei_printf("\n");
    }
    ei_printf("\n");
#endif // EI_CLASSIFIER_PRINT_STATE

    if (status != kTfLiteOk) {
      return status;
    }
  }
  return kTfLiteOk;
}

TfLiteStatus trained_model_reset( void (*free_fnc)(void* ptr) ) {
#ifdef EI_CLASSIFIER_ALLOCATION_HEAP
  free_fnc(tensor_arena);
#endif

  // scratch buffers are allocated within the arena, so just reset the counter so memory can be reused
  scratch_buffers_ix = 0;

  // overflow buffers are on the heap, so free them first
  for (size_t ix = 0; ix < overflow_buffers_ix; ix++) {
    ei_free(overflow_buffers[ix]);
  }
  overflow_buffers_ix = 0;
  return kTfLiteOk;
}
